<?xml version="1.0" ?>

<BIF VERSION="0.3">
<NETWORK>
<NAME>unnamedBN</NAME>
<PROPERTY>software aGrUM</PROPERTY>

<!-- Variables -->
<VARIABLE TYPE="nature">
	<NAME>Allergy</NAME>
	<PROPERTY>Allergy</PROPERTY>
	<OUTCOME>0</OUTCOME>
	<OUTCOME>1</OUTCOME>
</VARIABLE>

<VARIABLE TYPE="nature">
	<NAME>Lung Cancer</NAME>
	<PROPERTY>Lung Cancer</PROPERTY>
	<OUTCOME>0</OUTCOME>
	<OUTCOME>1</OUTCOME>
</VARIABLE>

<VARIABLE TYPE="nature">
	<NAME>Anxiety</NAME>
	<PROPERTY>Anxiety</PROPERTY>
	<OUTCOME>0</OUTCOME>
	<OUTCOME>1</OUTCOME>
</VARIABLE>

<VARIABLE TYPE="nature">
	<NAME>Smoking</NAME>
	<PROPERTY>Smoking</PROPERTY>
	<OUTCOME>0</OUTCOME>
	<OUTCOME>1</OUTCOME>
</VARIABLE>

<VARIABLE TYPE="nature">
	<NAME>Genetics</NAME>
	<PROPERTY>Genetics</PROPERTY>
	<OUTCOME>0</OUTCOME>
	<OUTCOME>1</OUTCOME>
</VARIABLE>

<VARIABLE TYPE="nature">
	<NAME>Peer Presure</NAME>
	<PROPERTY>Peer Presure</PROPERTY>
	<OUTCOME>0</OUTCOME>
	<OUTCOME>1</OUTCOME>
</VARIABLE>

<VARIABLE TYPE="nature">
	<NAME>Yellow Fingers</NAME>
	<PROPERTY>Yellow Fingers</PROPERTY>
	<OUTCOME>0</OUTCOME>
	<OUTCOME>1</OUTCOME>
</VARIABLE>

<VARIABLE TYPE="nature">
	<NAME>Fatigue</NAME>
	<PROPERTY>Fatigue</PROPERTY>
	<OUTCOME>0</OUTCOME>
	<OUTCOME>1</OUTCOME>
</VARIABLE>

<VARIABLE TYPE="nature">
	<NAME>Car accident</NAME>
	<PROPERTY>Car accident</PROPERTY>
	<OUTCOME>0</OUTCOME>
	<OUTCOME>1</OUTCOME>
</VARIABLE>

<VARIABLE TYPE="nature">
	<NAME>Attention Disorder</NAME>
	<PROPERTY>Attention Disorder</PROPERTY>
	<OUTCOME>0</OUTCOME>
	<OUTCOME>1</OUTCOME>
</VARIABLE>

<!-- Probability distributions -->
<DEFINITION>
	<FOR>Allergy</FOR>
	<TABLE>
		0.217587 0.782413
	</TABLE>
</DEFINITION>
<DEFINITION>
	<FOR>Lung Cancer</FOR>
	<GIVEN>Allergy</GIVEN>
	<GIVEN>Smoking</GIVEN>
	<GIVEN>Genetics</GIVEN>
	<TABLE>
		0.419518 0.580482
		0.43848 0.56152
		0.538029 0.461971
		0.630706 0.369294
		0.81386 0.18614
		0.758108 0.241892
		0.638692 0.361308
		0.493846 0.506154
	</TABLE>
</DEFINITION>
<DEFINITION>
	<FOR>Anxiety</FOR>
	<TABLE>
		0.832327 0.167673
	</TABLE>
</DEFINITION>
<DEFINITION>
	<FOR>Smoking</FOR>
	<GIVEN>Anxiety</GIVEN>
	<GIVEN>Peer Presure</GIVEN>
	<TABLE>
		0.516771 0.483229
		0.913107 0.0868927
		0.48449 0.51551
		0.355544 0.644456
	</TABLE>
</DEFINITION>
<DEFINITION>
	<FOR>Genetics</FOR>
	<TABLE>
		0.458873 0.541127
	</TABLE>
</DEFINITION>
<DEFINITION>
	<FOR>Peer Presure</FOR>
	<TABLE>
		0.821598 0.178402
	</TABLE>
</DEFINITION>
<DEFINITION>
	<FOR>Yellow Fingers</FOR>
	<GIVEN>Smoking</GIVEN>
	<TABLE>
		0.139012 0.860988
		0.865231 0.134769
	</TABLE>
</DEFINITION>
<DEFINITION>
	<FOR>Fatigue</FOR>
	<GIVEN>Allergy</GIVEN>
	<TABLE>
		0.904683 0.0953168
		0.527956 0.472044
	</TABLE>
</DEFINITION>
<DEFINITION>
	<FOR>Car accident</FOR>
	<GIVEN>Fatigue</GIVEN>
	<GIVEN>Attention Disorder</GIVEN>
	<TABLE>
		0.72941 0.27059
		0.438504 0.561496
		0.25902 0.74098
		0.590964 0.409036
	</TABLE>
</DEFINITION>
<DEFINITION>
	<FOR>Attention Disorder</FOR>
	<GIVEN>Genetics</GIVEN>
	<TABLE>
		0.397828 0.602172
		0.444236 0.555764
	</TABLE>
</DEFINITION>

</NETWORK>
</BIF>
